{"graph_0": {"_type": "graph-file", "path": "media/graph/graph_0_summary_a2ba8299.graph.json", "sha256": "a2ba8299984ec4837fa89674ea36ff04547928bd3863cd22f09eaa7b12800a7c", "size": 1091}, "batch": 1875, "Batch loss per sample (train)": 0.005352388601750135, "_runtime": 81, "_timestamp": 1623186616, "_step": 1875, "parameters/conv_1.weight": {"_type": "histogram", "values": [1.0, 0.0, 1.0, 2.0, 3.0, 4.0, 5.0, 10.0, 7.0, 23.0, 16.0, 26.0, 13.0, 23.0, 20.0, 28.0, 33.0, 21.0, 37.0, 28.0, 20.0, 19.0, 37.0, 20.0, 21.0, 36.0, 23.0, 22.0, 24.0, 17.0, 19.0, 22.0, 28.0, 17.0, 27.0, 21.0, 24.0, 25.0, 22.0, 19.0, 28.0, 23.0, 26.0, 25.0, 25.0, 24.0, 14.0, 14.0, 17.0, 15.0, 10.0, 7.0, 5.0, 7.0, 10.0, 3.0, 0.0, 1.0, 2.0, 0.0, 1.0, 1.0, 1.0, 1.0], "bins": [-0.19780948758125305, -0.19117583334445953, -0.1845421940088272, -0.1779085397720337, -0.17127488553524017, -0.16464124619960785, -0.15800759196281433, -0.151373952627182, -0.1447402983903885, -0.13810664415359497, -0.13147300481796265, -0.12483935058116913, -0.11820570379495621, -0.11157205700874329, -0.10493840277194977, -0.09830475598573685, -0.09167110174894333, -0.08503745496273041, -0.07840380072593689, -0.07177015393972397, -0.06513650715351105, -0.05850285664200783, -0.05186920613050461, -0.04523555934429169, -0.03860190510749817, -0.03196825459599495, -0.025334607809782028, -0.01870095729827881, -0.012067308649420738, -0.005433660000562668, 0.0011999905109405518, 0.007833637297153473, 0.014467284083366394, 0.021100932732224464, 0.027734581381082535, 0.034368231892585754, 0.041001878678798676, 0.047635529190301895, 0.054269179701805115, 0.060902826488018036, 0.06753647327423096, 0.07417012006044388, 0.0808037742972374, 0.08743742108345032, 0.09407106786966324, 0.10070471465587616, 0.10733836889266968, 0.1139720156788826, 0.12060566991567612, 0.12723931670188904, 0.13387297093868256, 0.14050662517547607, 0.1471402645111084, 0.15377391874790192, 0.16040757298469543, 0.16704121232032776, 0.17367486655712128, 0.1803085207939148, 0.18694216012954712, 0.19357581436634064, 0.20020946860313416, 0.20684310793876648, 0.21347676217556, 0.22011041641235352, 0.22674405574798584]}, "parameters/conv_1.bias": {"_type": "histogram", "values": [1.0, 0.0, 0.0, 0.0, 0.0, 0.0, 0.0, 0.0, 0.0, 0.0, 1.0, 1.0, 0.0, 0.0, 1.0, 1.0, 0.0, 0.0, 0.0, 1.0, 0.0, 0.0, 1.0, 0.0, 1.0, 0.0, 0.0, 0.0, 1.0, 0.0, 0.0, 0.0, 1.0, 0.0, 0.0, 1.0, 0.0, 0.0, 0.0, 0.0, 0.0, 0.0, 0.0, 0.0, 0.0, 0.0, 0.0, 0.0, 0.0, 1.0, 0.0, 0.0, 0.0, 1.0, 0.0, 0.0, 0.0, 1.0, 0.0, 0.0, 0.0, 1.0, 0.0, 1.0], "bins": [-0.07954690605401993, -0.07627341151237488, -0.07299991697072983, -0.06972642242908478, -0.06645293533802032, -0.06317944079637527, -0.059905946254730225, -0.056632451713085175, -0.05335896089673042, -0.05008546635508537, -0.04681197553873062, -0.04353848099708557, -0.04026498645544052, -0.03699149563908577, -0.03371800109744072, -0.03044450841844082, -0.027171015739440918, -0.023897523060441017, -0.020624030381441116, -0.017350535839796066, -0.014077043160796165, -0.010803550481796265, -0.007530055940151215, -0.004256563261151314, -0.0009830668568611145, 0.0022904262878000736, 0.005563919432461262, 0.008837413042783737, 0.012110905721783638, 0.015384398400783539, 0.01865789294242859, 0.02193138562142849, 0.02520488202571869, 0.02847837470471859, 0.03175186738371849, 0.03502536192536354, 0.03829885274171829, 0.04157234728336334, 0.04484584182500839, 0.04811933636665344, 0.051392823457717896, 0.054666317999362946, 0.0579398088157177, 0.06121330335736275, 0.0644867941737175, 0.06776028871536255, 0.0710337832570076, 0.07430727779865265, 0.0775807723402977, 0.08085426688194275, 0.0841277614235878, 0.08740125596523285, 0.0906747430562973, 0.09394823759794235, 0.0972217321395874, 0.10049522668123245, 0.1037687212228775, 0.10704221576452255, 0.1103157103061676, 0.11358919739723206, 0.1168626919388771, 0.12013618648052216, 0.1234096810221672, 0.12668317556381226, 0.1299566626548767]}, "parameters/conv_2.weight": {"_type": "histogram", "values": [1.0, 1.0, 0.0, 2.0, 4.0, 4.0, 5.0, 9.0, 5.0, 13.0, 16.0, 17.0, 13.0, 26.0, 16.0, 23.0, 30.0, 41.0, 24.0, 38.0, 36.0, 41.0, 77.0, 55.0, 66.0, 59.0, 81.0, 63.0, 72.0, 49.0, 79.0, 78.0, 60.0, 67.0, 68.0, 53.0, 67.0, 66.0, 59.0, 51.0, 51.0, 45.0, 49.0, 38.0, 54.0, 54.0, 35.0, 26.0, 28.0, 31.0, 30.0, 17.0, 7.0, 15.0, 6.0, 6.0, 6.0, 3.0, 3.0, 3.0, 2.0, 0.0, 1.0, 3.0], "bins": [-0.15701322257518768, -0.15229950845241547, -0.14758580923080444, -0.14287209510803223, -0.1381583958864212, -0.133444681763649, -0.12873098254203796, -0.12401726841926575, -0.11930356174707413, -0.11458985507488251, -0.10987614840269089, -0.10516244173049927, -0.10044872760772705, -0.09573502838611603, -0.09102131426334381, -0.08630760759115219, -0.08159390091896057, -0.07688019424676895, -0.07216648757457733, -0.06745278090238571, -0.06273907423019409, -0.05802536383271217, -0.053311653435230255, -0.048597946763038635, -0.043884240090847015, -0.039170533418655396, -0.034456826746463776, -0.029743116348981857, -0.025029409676790237, -0.020315703004598618, -0.015601994469761848, -0.01088828593492508, -0.0061745792627334595, -0.001460871659219265, 0.0032528359442949295, 0.007966543547809124, 0.012680251151323318, 0.01739395782351494, 0.022107666358351707, 0.026821374893188477, 0.031535081565380096, 0.036248788237571716, 0.040962494909763336, 0.045676205307245255, 0.050389911979436874, 0.055103618651628494, 0.05981732904911041, 0.06453103572130203, 0.06924474239349365, 0.07395844906568527, 0.07867215573787689, 0.08338586241006851, 0.08809956908226013, 0.09281328320503235, 0.09752698987722397, 0.10224069654941559, 0.10695440322160721, 0.11166810989379883, 0.11638181656599045, 0.12109552323818207, 0.12580923736095428, 0.1305229365825653, 0.13523665070533752, 0.13995036482810974, 0.14466406404972076]}, "parameters/conv_2.bias": {"_type": "histogram", "values": [1.0, 0.0, 0.0, 0.0, 0.0, 0.0, 0.0, 0.0, 1.0, 0.0, 0.0, 0.0, 0.0, 0.0, 0.0, 0.0, 0.0, 0.0, 0.0, 0.0, 1.0, 0.0, 0.0, 0.0, 0.0, 0.0, 0.0, 0.0, 0.0, 0.0, 0.0, 0.0, 0.0, 0.0, 0.0, 0.0, 0.0, 0.0, 0.0, 1.0, 0.0, 0.0, 0.0, 0.0, 0.0, 0.0, 0.0, 0.0, 0.0, 0.0, 1.0, 0.0, 0.0, 0.0, 0.0, 1.0, 0.0, 0.0, 0.0, 0.0, 0.0, 0.0, 0.0, 2.0], "bins": [-0.034110452979803085, -0.032554689794778824, -0.030998924747109413, -0.029443159699440002, -0.02788739651441574, -0.02633163332939148, -0.02477586828172207, -0.023220103234052658, -0.021664340049028397, -0.020108576864004135, -0.018552811816334724, -0.016997046768665314, -0.015441283583641052, -0.013885519467294216, -0.01232975535094738, -0.010773991234600544, -0.009218227118253708, -0.007662463001906872, -0.006106698885560036, -0.0045509347692132, -0.0029951706528663635, -0.0014394065365195274, 0.00011635757982730865, 0.0016721216961741447, 0.003227885812520981, 0.004783649928867817, 0.006339414045214653, 0.007895178161561489, 0.009450942277908325, 0.011006706394255161, 0.012562470510601997, 0.014118234626948833, 0.01567399501800537, 0.017229758203029633, 0.018785523250699043, 0.020341288298368454, 0.021897051483392715, 0.023452814668416977, 0.025008579716086388, 0.0265643447637558, 0.02812010794878006, 0.02967587113380432, 0.031231636181473732, 0.03278740122914314, 0.034343164414167404, 0.035898927599191666, 0.037454694509506226, 0.03901045769453049, 0.04056622087955475, 0.04212198406457901, 0.04367774724960327, 0.04523351415991783, 0.04678927734494209, 0.048345040529966354, 0.049900807440280914, 0.051456570625305176, 0.05301233381032944, 0.0545680969953537, 0.05612386018037796, 0.05767962709069252, 0.05923539027571678, 0.06079115346074104, 0.0623469203710556, 0.06390268355607986, 0.06545844674110413]}, "parameters/linear.weight": {"_type": "histogram", "values": [1.0, 0.0, 0.0, 0.0, 1.0, 3.0, 1.0, 3.0, 6.0, 4.0, 8.0, 8.0, 6.0, 20.0, 37.0, 25.0, 39.0, 59.0, 68.0, 85.0, 111.0, 150.0, 158.0, 206.0, 242.0, 333.0, 461.0, 508.0, 613.0, 754.0, 798.0, 882.0, 1087.0, 1174.0, 1296.0, 1423.0, 1448.0, 1384.0, 1399.0, 1265.0, 1299.0, 1134.0, 934.0, 864.0, 735.0, 604.0, 432.0, 331.0, 224.0, 163.0, 111.0, 86.0, 51.0, 33.0, 17.0, 11.0, 10.0, 4.0, 6.0, 3.0, 1.0, 0.0, 0.0, 1.0], "bins": [-0.11341628432273865, -0.11036338657140732, -0.10731048882007599, -0.10425759851932526, -0.10120470076799393, -0.0981518030166626, -0.09509890526533127, -0.09204600751399994, -0.0889931172132492, -0.08594021946191788, -0.08288732171058655, -0.07983443140983582, -0.07678153365850449, -0.07372863590717316, -0.07067573815584183, -0.0676228404045105, -0.06456995010375977, -0.061517052352428436, -0.058464158326387405, -0.055411260575056076, -0.052358366549015045, -0.049305468797683716, -0.046252571046352386, -0.043199677020311356, -0.04014677554368973, -0.0370938777923584, -0.03404098376631737, -0.030988086014986038, -0.027935191988945007, -0.024882294237613678, -0.021829398348927498, -0.018776502460241318, -0.015723608434200287, -0.012670712545514107, -0.009617816656827927, -0.006564919836819172, -0.003512023948132992, -0.0004591280594468117, 0.002593768760561943, 0.005646664649248123, 0.008699558675289154, 0.011752454563975334, 0.014805350452661514, 0.017858248203992844, 0.020911142230033875, 0.023964039981365204, 0.027016935870051384, 0.030069831758737564, 0.03312272951006889, 0.03617562726140022, 0.039228521287441254, 0.04228141903877258, 0.045334313064813614, 0.04838721081614494, 0.051440104842185974, 0.0544930025935173, 0.05754590034484863, 0.06059879809617996, 0.06365169584751129, 0.06670458614826202, 0.06975748389959335, 0.07281038165092468, 0.07586327940225601, 0.07891617715358734, 0.08196906745433807]}, "parameters/linear.bias": {"_type": "histogram", "values": [1.0, 0.0, 0.0, 0.0, 0.0, 0.0, 0.0, 0.0, 0.0, 0.0, 0.0, 0.0, 0.0, 1.0, 0.0, 0.0, 0.0, 0.0, 0.0, 0.0, 1.0, 0.0, 0.0, 0.0, 0.0, 0.0, 0.0, 1.0, 0.0, 0.0, 0.0, 0.0, 0.0, 1.0, 0.0, 0.0, 1.0, 0.0, 0.0, 0.0, 0.0, 0.0, 0.0, 0.0, 0.0, 0.0, 0.0, 0.0, 0.0, 0.0, 0.0, 0.0, 0.0, 1.0, 0.0, 1.0, 0.0, 0.0, 0.0, 0.0, 0.0, 0.0, 0.0, 2.0], "bins": [-0.0145304836332798, -0.014173012226819992, -0.013815541751682758, -0.01345807034522295, -0.013100599870085716, -0.012743128463625908, -0.012385657988488674, -0.012028186582028866, -0.011670716106891632, -0.011313244700431824, -0.01095577422529459, -0.010598302818834782, -0.010240832343697548, -0.00988336093723774, -0.009525890462100506, -0.009168419055640697, -0.008810948580503464, -0.008453477174043655, -0.008096006698906422, -0.007738535758107901, -0.00738106481730938, -0.0070235938765108585, -0.0066661229357123375, -0.006308651529252529, -0.005951180122792721, -0.0055937091819942, -0.005236238241195679, -0.004878767300397158, -0.004521296359598637, -0.004163825418800116, -0.003806354245170951, -0.00344888330437243, -0.0030914125964045525, -0.0027339416556060314, -0.0023764707148075104, -0.0020189997740089893, -0.0016615287167951465, -0.0013040577759966254, -0.0009465867187827826, -0.0005891157779842615, -0.00023164507001638412, 0.00012582589988596737, 0.00048329686978831887, 0.0008407678687945008, 0.0011982388095930219, 0.001555709750391543, 0.0019131808076053858, 0.002270651748403907, 0.0026281229220330715, 0.0029855938628315926, 0.0033430648036301136, 0.0037005357444286346, 0.004058006685227156, 0.004415477626025677, 0.004772949032485485, 0.005130419507622719, 0.005487890914082527, 0.005845361854881048, 0.006202832795679569, 0.00656030373647809, 0.006917774677276611, 0.007275245618075132, 0.007632716558873653, 0.007990187965333462, 0.008347658440470695]}, "gradients/linear.bias": {"_type": "histogram", "values": [1.0, 0.0, 0.0, 0.0, 0.0, 0.0, 0.0, 0.0, 0.0, 0.0, 0.0, 0.0, 0.0, 0.0, 0.0, 0.0, 0.0, 0.0, 0.0, 0.0, 0.0, 0.0, 0.0, 0.0, 0.0, 0.0, 0.0, 0.0, 0.0, 0.0, 0.0, 0.0, 0.0, 0.0, 0.0, 0.0, 2.0, 0.0, 0.0, 0.0, 1.0, 0.0, 0.0, 0.0, 0.0, 1.0, 0.0, 0.0, 0.0, 0.0, 0.0, 2.0, 1.0, 1.0, 0.0, 0.0, 0.0, 0.0, 0.0, 0.0, 0.0, 0.0, 0.0, 1.0], "bins": [-0.009182712994515896, -0.008970373310148716, -0.00875803455710411, -0.00854569487273693, -0.008333355188369751, -0.008121016435325146, -0.007908676750957966, -0.007696337066590786, -0.007483997847884893, -0.007271658629179001, -0.007059318944811821, -0.006846979726105928, -0.006634640507400036, -0.006422300823032856, -0.006209961604326963, -0.005997622385621071, -0.005785282701253891, -0.005572943482547998, -0.0053606037981808186, -0.005148264579474926, -0.004935925360769033, -0.0047235856764018536, -0.004511246457695961, -0.004298906773328781, -0.004086568020284176, -0.0038742285687476397, -0.003661889350041747, -0.003449549898505211, -0.0032372104469686747, -0.0030248709954321384, -0.002812531776726246, -0.0026001923251897097, -0.0023878528736531734, -0.0021755134221166372, -0.0019631742034107447, -0.0017508347518742085, -0.0015384953003376722, -0.0013261559652164578, -0.0011138166300952435, -0.0009014771785587072, -0.000689137727022171, -0.0004767983336932957, -0.00026445896946825087, -5.2119605243206024e-05, 0.00016021978808566928, 0.0003725591814145446, 0.000584898516535759, 0.0007972379680722952, 0.0010095771867781878, 0.0012219165218994021, 0.0014342559734359384, 0.0016465953085571527, 0.001858934760093689, 0.0020712739787995815, 0.0022836134303361177, 0.002495952881872654, 0.0027082921005785465, 0.0029206315521150827, 0.0031329707708209753, 0.0033453102223575115, 0.0035576496738940477, 0.003769989125430584, 0.0039823283441364765, 0.004194667562842369, 0.004407007247209549]}, "gradients/linear.weight": {"_type": "histogram", "values": [1.0, 1.0, 2.0, 3.0, 6.0, 3.0, 9.0, 6.0, 3.0, 4.0, 11.0, 16.0, 10.0, 14.0, 22.0, 20.0, 19.0, 16.0, 26.0, 51.0, 59.0, 48.0, 60.0, 46.0, 70.0, 86.0, 88.0, 131.0, 178.0, 247.0, 361.0, 597.0, 1227.0, 8761.0, 7488.0, 1451.0, 539.0, 337.0, 249.0, 143.0, 92.0, 91.0, 51.0, 56.0, 64.0, 47.0, 66.0, 53.0, 39.0, 29.0, 30.0, 20.0, 17.0, 14.0, 11.0, 6.0, 6.0, 8.0, 1.0, 6.0, 1.0, 0.0, 0.0, 3.0], "bins": [-0.049646634608507156, -0.04818420112133026, -0.046721767634153366, -0.04525933414697647, -0.043796900659799576, -0.04233446717262268, -0.04087202996015549, -0.03940960019826889, -0.0379471629858017, -0.0364847294986248, -0.035022296011447906, -0.03355986252427101, -0.032097429037094116, -0.03063499554991722, -0.029172560200095177, -0.02771012671291828, -0.026247695088386536, -0.02478526160120964, -0.023322828114032745, -0.02186039462685585, -0.020397961139678955, -0.01893552765250206, -0.017473092302680016, -0.01601065881550312, -0.014548223465681076, -0.013085789978504181, -0.011623356491327286, -0.010160922072827816, -0.008698488585650921, -0.007236055098474026, -0.005773620679974556, -0.004311187192797661, -0.0028487518429756165, -0.0013863181229680777, 7.611559703946114e-05, 0.0015385495498776436, 0.0030009830370545387, 0.004463416524231434, 0.005925850942730904, 0.007388284429907799, 0.008850716054439545, 0.01031314954161644, 0.011775583028793335, 0.013238017447292805, 0.0147004509344697, 0.01616288349032402, 0.017625318840146065, 0.01908775232732296, 0.020550187677145004, 0.0220126211643219, 0.023475054651498795, 0.02493748813867569, 0.026399921625852585, 0.02786235511302948, 0.029324790462851524, 0.03078722395002842, 0.032249659299850464, 0.03371209278702736, 0.035174526274204254, 0.03663695976138115, 0.038099393248558044, 0.03956182673573494, 0.041024260222911835, 0.04248669743537903, 0.043949127197265625]}, "gradients/conv_2.weight": {"_type": "histogram", "values": [1.0, 1.0, 0.0, 0.0, 0.0, 0.0, 3.0, 3.0, 2.0, 1.0, 2.0, 3.0, 2.0, 4.0, 7.0, 7.0, 7.0, 8.0, 14.0, 9.0, 14.0, 17.0, 18.0, 26.0, 34.0, 32.0, 40.0, 48.0, 45.0, 62.0, 61.0, 90.0, 87.0, 101.0, 128.0, 147.0, 175.0, 178.0, 168.0, 102.0, 74.0, 75.0, 56.0, 36.0, 27.0, 30.0, 26.0, 18.0, 13.0, 10.0, 4.0, 10.0, 4.0, 3.0, 2.0, 1.0, 3.0, 1.0, 1.0, 2.0, 3.0, 1.0, 0.0, 1.0], "bins": [-0.027299489825963974, -0.026576267555356026, -0.025853043422102928, -0.02512982115149498, -0.02440659888088703, -0.023683374747633934, -0.022960152477025986, -0.022236928343772888, -0.02151370607316494, -0.02079048380255699, -0.020067259669303894, -0.019344037398695946, -0.018620815128087997, -0.0178975909948349, -0.01717436872422695, -0.016451146453619003, -0.015727922320365906, -0.015004699118435383, -0.014281476847827435, -0.013558253645896912, -0.012835030443966389, -0.012111807242035866, -0.011388584971427917, -0.010665361769497395, -0.009942140430212021, -0.009218917228281498, -0.00849569495767355, -0.007772471755743027, -0.007049248553812504, -0.006326025817543268, -0.005602803081274033, -0.00487957987934351, -0.004156356677412987, -0.0034331337083131075, -0.0027099107392132282, -0.0019866880029439926, -0.0012634650338441133, -0.0005402420647442341, 0.00018298067152500153, 0.0009062038734555244, 0.0016294270753860474, 0.0023526500444859266, 0.003075873013585806, 0.0037990957498550415, 0.004522318951785564, 0.0052455416880548, 0.005968764424324036, 0.0066919876262545586, 0.007415209896862507, 0.00813843309879303, 0.008861655369400978, 0.009584878571331501, 0.010308101773262024, 0.011031324043869972, 0.011754547245800495, 0.012477770447731018, 0.013200992718338966, 0.01392421592026949, 0.014647438190877438, 0.01537066139280796, 0.01609388366341591, 0.016817107796669006, 0.017540330067276955, 0.018263552337884903, 0.018986776471138]}, "gradients/conv_2.bias": {"_type": "histogram", "values": [1.0, 0.0, 0.0, 0.0, 0.0, 0.0, 0.0, 0.0, 0.0, 0.0, 0.0, 0.0, 0.0, 0.0, 0.0, 0.0, 0.0, 0.0, 1.0, 0.0, 0.0, 0.0, 0.0, 0.0, 0.0, 0.0, 0.0, 0.0, 1.0, 0.0, 0.0, 0.0, 0.0, 0.0, 0.0, 1.0, 0.0, 0.0, 0.0, 0.0, 0.0, 0.0, 0.0, 0.0, 0.0, 0.0, 0.0, 0.0, 0.0, 0.0, 1.0, 0.0, 1.0, 0.0, 0.0, 0.0, 0.0, 1.0, 0.0, 0.0, 0.0, 0.0, 0.0, 1.0], "bins": [-0.021240325644612312, -0.020845981314778328, -0.020451635122299194, -0.02005729079246521, -0.019662946462631226, -0.019268600270152092, -0.018874255940318108, -0.018479909747838974, -0.01808556541800499, -0.017691221088171005, -0.01729687489569187, -0.016902530565857887, -0.016508184373378754, -0.01611384004354477, -0.015719495713710785, -0.015325150452554226, -0.014930805191397667, -0.014536459930241108, -0.014142114669084549, -0.013747770339250565, -0.013353425078094006, -0.012959079816937447, -0.012564735487103462, -0.012170390225946903, -0.011776044964790344, -0.011381699703633785, -0.010987354442477226, -0.010593010112643242, -0.010198664851486683, -0.009804319590330124, -0.00940997526049614, -0.00901562999933958, -0.008621285669505596, -0.008226940408349037, -0.007832596078515053, -0.007438250817358494, -0.007043905556201935, -0.006649560295045376, -0.006255215499550104, -0.0058608707040548325, -0.0054665254428982735, -0.0050721801817417145, -0.004677835386246443, -0.004283490590751171, -0.003889145329594612, -0.003494800301268697, -0.0031004552729427814, -0.002706110244616866, -0.0023117652162909508, -0.0019174201879650354, -0.00152307515963912, -0.0011287301313132048, -0.0007343851029872894, -0.0003400400746613741, 5.4304953664541245e-05, 0.0004486499819904566, 0.0008429950103163719, 0.0012373400386422873, 0.0016316850669682026, 0.002026030095294118, 0.0024203751236200333, 0.0028147201519459486, 0.003209065180271864, 0.0036034102085977793, 0.003997755236923695]}, "gradients/conv_1.weight": {"_type": "histogram", "values": [2.0, 0.0, 1.0, 1.0, 5.0, 2.0, 4.0, 3.0, 9.0, 8.0, 5.0, 10.0, 11.0, 6.0, 7.0, 8.0, 17.0, 17.0, 7.0, 15.0, 13.0, 27.0, 30.0, 16.0, 30.0, 38.0, 29.0, 32.0, 33.0, 33.0, 37.0, 35.0, 34.0, 42.0, 33.0, 37.0, 45.0, 61.0, 40.0, 42.0, 41.0, 12.0, 22.0, 26.0, 22.0, 8.0, 15.0, 9.0, 6.0, 6.0, 6.0, 3.0, 3.0, 5.0, 3.0, 3.0, 0.0, 1.0, 1.0, 2.0, 3.0, 0.0, 1.0, 1.0], "bins": [-0.02425372786819935, -0.023447182029485703, -0.022640636190772057, -0.02183409035205841, -0.021027542650699615, -0.02022099867463112, -0.019414450973272324, -0.018607905134558678, -0.017801359295845032, -0.016994813457131386, -0.01618826761841774, -0.01538172084838152, -0.014575175009667873, -0.013768629170954227, -0.012962082400918007, -0.012155536562204361, -0.011348990723490715, -0.010542444884777069, -0.009735899046063423, -0.008929352276027203, -0.008122806437313557, -0.007316260598599911, -0.0065097142942249775, -0.005703167989850044, -0.004896622151136398, -0.004090076312422752, -0.003283530008047819, -0.0024769839365035295, -0.00167043786495924, -0.000863892026245594, -5.734572187066078e-05, 0.0007492005825042725, 0.0015557445585727692, 0.0023622906301170588, 0.0031688367016613483, 0.003975383006036282, 0.0047819288447499275, 0.0055884746834635735, 0.006395020987838507, 0.00720156729221344, 0.008008113130927086, 0.008814658969640732, 0.009621204808354378, 0.010427751578390598, 0.011234297417104244, 0.01204084325581789, 0.01284739002585411, 0.013653935864567757, 0.014460481703281403, 0.015267027541995049, 0.016073573380708694, 0.01688011921942234, 0.017686665058135986, 0.01849321275949478, 0.019299758598208427, 0.020106304436922073, 0.02091285027563572, 0.021719396114349365, 0.02252594195306301, 0.023332487791776657, 0.024139035493135452, 0.02494557946920395, 0.025752127170562744, 0.02655867300927639, 0.027365218847990036]}, "gradients/conv_1.bias": {"_type": "histogram", "values": [1.0, 0.0, 0.0, 0.0, 0.0, 0.0, 0.0, 1.0, 0.0, 0.0, 0.0, 1.0, 1.0, 0.0, 0.0, 1.0, 1.0, 0.0, 0.0, 0.0, 0.0, 0.0, 1.0, 0.0, 1.0, 1.0, 1.0, 1.0, 0.0, 0.0, 0.0, 1.0, 1.0, 0.0, 0.0, 0.0, 0.0, 0.0, 0.0, 0.0, 0.0, 0.0, 0.0, 0.0, 0.0, 0.0, 0.0, 0.0, 0.0, 0.0, 0.0, 0.0, 0.0, 0.0, 0.0, 0.0, 0.0, 0.0, 1.0, 0.0, 0.0, 1.0, 0.0, 1.0], "bins": [-0.017147939652204514, -0.016590561717748642, -0.01603318192064762, -0.015475803054869175, -0.014918424189090729, -0.014361046254634857, -0.013803667388856411, -0.013246288523077965, -0.012688909657299519, -0.012131530791521072, -0.011574151925742626, -0.01101677305996418, -0.010459395125508308, -0.009902015328407288, -0.009344637393951416, -0.00878725852817297, -0.008229879662394524, -0.007672500796616077, -0.007115121930837631, -0.006557743530720472, -0.006000364664942026, -0.00544298579916358, -0.004885607399046421, -0.004328228533267975, -0.0037708496674895287, -0.0032134708017110825, -0.00265609216876328, -0.0020987135358154774, -0.0015413346700370312, -0.000983955804258585, -0.00042657717131078243, 0.0001308014616370201, 0.0006881821900606155, 0.00124556093942374, 0.0018029396887868643, 0.002360318321734667, 0.002917697187513113, 0.0034750760532915592, 0.004032454453408718, 0.004589833319187164, 0.0051472121849656105, 0.005704591050744057, 0.006261969916522503, 0.006819348316639662, 0.007376727182418108, 0.007934106513857841, 0.008491484448313713, 0.00904886331409216, 0.009606242179870605, 0.010163621045649052, 0.010720999911427498, 0.011278378777205944, 0.01183575764298439, 0.012393135577440262, 0.012950514443218708, 0.013507893308997154, 0.0140652721747756, 0.014622651040554047, 0.015180029906332493, 0.01573740877211094, 0.01629478670656681, 0.01685216650366783, 0.017409544438123703, 0.017966922372579575, 0.018524302169680595]}, "epoch": 1, "Train loss": 88.7137675974518, "train_accuracy": 0.98065, "test_accuracy": 0.9839}